digraph Tree {
node [shape=box, style="filled, rounded", color="black", fontname=helvetica] ;
edge [fontname=helvetica] ;
0 [label="total_phenols <= 6.941\nmse = 84.42\nsamples = 506\nvalue = 22.533", fillcolor="#f6d1b7"] ;
1 [label="proline <= 14.4\nmse = 40.273\nsamples = 430\nvalue = 19.934", fillcolor="#f7dac4"] ;
0 -> 1 [labeldistance=2.5, labelangle=45, headlabel="True"] ;
2 [label="proline <= 4.91\nmse = 26.009\nsamples = 255\nvalue = 23.35", fillcolor="#f5cfb3"] ;
1 -> 2 ;
3 [label="magnesium <= 0.44\nmse = 47.187\nsamples = 20\nvalue = 31.565", fillcolor="#f0b58a"] ;
2 -> 3 ;
4 [label="mse = 6.23\nsamples = 10\nvalue = 28.66", fillcolor="#f2be99"] ;
3 -> 4 ;
5 [label="mse = 71.266\nsamples = 10\nvalue = 34.47", fillcolor="#eeac7c"] ;
3 -> 5 ;
6 [label="proline <= 9.715\nmse = 17.974\nsamples = 235\nvalue = 22.651", fillcolor="#f5d1b7"] ;
2 -> 6 ;
7 [label="flavanoids <= 87.6\nmse = 22.287\nsamples = 122\nvalue = 24.393", fillcolor="#f4cbae"] ;
6 -> 7 ;
8 [label="total_phenols <= 6.125\nmse = 11.111\nsamples = 112\nvalue = 23.787", fillcolor="#f5cdb1"] ;
7 -> 8 ;
9 [label="hue <= 19.4\nmse = 4.865\nsamples = 29\nvalue = 20.624", fillcolor="#f7d7c1"] ;
8 -> 9 ;
10 [label="mse = 2.254\nsamples = 17\nvalue = 21.353", fillcolor="#f6d5bd"] ;
9 -> 10 ;
11 [label="mse = 6.744\nsamples = 12\nvalue = 19.592", fillcolor="#f7dbc6"] ;
9 -> 11 ;
12 [label="total_phenols <= 6.611\nmse = 8.576\nsamples = 83\nvalue = 24.893", fillcolor="#f4caab"] ;
8 -> 12 ;
13 [label="color_intensity <= 332.5\nmse = 6.848\nsamples = 60\nvalue = 23.99", fillcolor="#f5cdb0"] ;
12 -> 13 ;
14 [label="flavanoids <= 63.7\nmse = 6.345\nsamples = 50\nvalue = 24.366", fillcolor="#f4ccae"] ;
13 -> 14 ;
15 [label="nonflavanoid_phenols <= 4.631\nmse = 6.944\nsamples = 40\nvalue = 24.748", fillcolor="#f4caac"] ;
14 -> 15 ;
16 [label="mse = 14.017\nsamples = 11\nvalue = 26.564", fillcolor="#f3c5a3"] ;
15 -> 16 ;
17 [label="total_phenols <= 6.349\nmse = 2.536\nsamples = 29\nvalue = 24.059", fillcolor="#f5ccb0"] ;
15 -> 17 ;
18 [label="mse = 1.484\nsamples = 12\nvalue = 23.308", fillcolor="#f5cfb3"] ;
17 -> 18 ;
19 [label="mse = 2.6\nsamples = 17\nvalue = 24.588", fillcolor="#f4cbad"] ;
17 -> 19 ;
20 [label="mse = 1.038\nsamples = 10\nvalue = 22.84", fillcolor="#f5d0b6"] ;
14 -> 20 ;
21 [label="mse = 5.119\nsamples = 10\nvalue = 22.11", fillcolor="#f6d3b9"] ;
13 -> 21 ;
22 [label="nonflavanoid_phenols <= 3.968\nmse = 5.413\nsamples = 23\nvalue = 27.248", fillcolor="#f2c2a0"] ;
12 -> 22 ;
23 [label="mse = 4.1\nsamples = 11\nvalue = 28.4", fillcolor="#f2bf9a"] ;
22 -> 23 ;
24 [label="mse = 4.284\nsamples = 12\nvalue = 26.192", fillcolor="#f3c6a5"] ;
22 -> 24 ;
25 [label="mse = 97.42\nsamples = 10\nvalue = 31.17", fillcolor="#f0b68c"] ;
7 -> 25 ;
26 [label="hue <= 17.85\nmse = 6.503\nsamples = 113\nvalue = 20.77", fillcolor="#f7d7c0"] ;
6 -> 26 ;
27 [label="color_intensity <= 309.0\nmse = 8.556\nsamples = 33\nvalue = 21.864", fillcolor="#f6d3bb"] ;
26 -> 27 ;
28 [label="mse = 9.029\nsamples = 15\nvalue = 23.127", fillcolor="#f5cfb4"] ;
27 -> 28 ;
29 [label="mse = 5.725\nsamples = 18\nvalue = 20.811", fillcolor="#f7d7c0"] ;
27 -> 29 ;
30 [label="ash <= 10.245\nmse = 4.96\nsamples = 80\nvalue = 20.319", fillcolor="#f7d8c2"] ;
26 -> 30 ;
31 [label="flavanoids <= 70.1\nmse = 4.35\nsamples = 44\nvalue = 19.661", fillcolor="#f7dac5"] ;
30 -> 31 ;
32 [label="total_phenols <= 5.909\nmse = 4.541\nsamples = 26\nvalue = 20.292", fillcolor="#f7d8c2"] ;
31 -> 32 ;
33 [label="mse = 2.396\nsamples = 13\nvalue = 19.077", fillcolor="#f8dcc8"] ;
32 -> 33 ;
34 [label="mse = 3.733\nsamples = 13\nvalue = 21.508", fillcolor="#f6d5bc"] ;
32 -> 34 ;
35 [label="mse = 2.668\nsamples = 18\nvalue = 18.75", fillcolor="#f8ddca"] ;
31 -> 35 ;
36 [label="magnesium <= 0.627\nmse = 4.531\nsamples = 36\nvalue = 21.122", fillcolor="#f6d6be"] ;
30 -> 36 ;
37 [label="flavanoids <= 72.1\nmse = 4.093\nsamples = 24\nvalue = 20.783", fillcolor="#f7d7c0"] ;
36 -> 37 ;
38 [label="mse = 1.226\nsamples = 11\nvalue = 21.809", fillcolor="#f6d4bb"] ;
37 -> 38 ;
39 [label="mse = 4.875\nsamples = 13\nvalue = 19.915", fillcolor="#f7dac4"] ;
37 -> 39 ;
40 [label="mse = 4.717\nsamples = 12\nvalue = 21.8", fillcolor="#f6d4bb"] ;
36 -> 40 ;
41 [label="alcohol <= 6.992\nmse = 19.276\nsamples = 175\nvalue = 14.956", fillcolor="#fbe9dd"] ;
1 -> 41 ;
42 [label="magnesium <= 0.531\nmse = 11.391\nsamples = 101\nvalue = 17.138", fillcolor="#f9e2d2"] ;
41 -> 42 ;
43 [label="nonflavanoid_phenols <= 5.57\nmse = 9.016\nsamples = 24\nvalue = 20.021", fillcolor="#f7d9c4"] ;
42 -> 43 ;
44 [label="mse = 2.862\nsamples = 13\nvalue = 21.454", fillcolor="#f6d5bd"] ;
43 -> 44 ;
45 [label="mse = 10.993\nsamples = 11\nvalue = 18.327", fillcolor="#f8dfcc"] ;
43 -> 45 ;
46 [label="proline <= 18.885\nmse = 8.733\nsamples = 77\nvalue = 16.239", fillcolor="#fae5d6"] ;
42 -> 46 ;
47 [label="flavanoids <= 85.2\nmse = 5.952\nsamples = 53\nvalue = 17.234", fillcolor="#f9e2d1"] ;
46 -> 47 ;
48 [label="mse = 4.531\nsamples = 12\nvalue = 19.408", fillcolor="#f8dbc7"] ;
47 -> 48 ;
49 [label="alcohol <= 0.615\nmse = 4.579\nsamples = 41\nvalue = 16.598", fillcolor="#f9e4d5"] ;
47 -> 49 ;
50 [label="mse = 3.971\nsamples = 16\nvalue = 18.112", fillcolor="#f8dfcd"] ;
49 -> 50 ;
51 [label="proline <= 17.275\nmse = 2.559\nsamples = 25\nvalue = 15.628", fillcolor="#fae7d9"] ;
49 -> 51 ;
52 [label="mse = 2.694\nsamples = 15\nvalue = 16.227", fillcolor="#fae5d6"] ;
51 -> 52 ;
53 [label="mse = 1.012\nsamples = 10\nvalue = 14.73", fillcolor="#fbeade"] ;
51 -> 53 ;
54 [label="flavanoids <= 97.2\nmse = 7.862\nsamples = 24\nvalue = 14.042", fillcolor="#fbece1"] ;
46 -> 54 ;
55 [label="mse = 5.798\nsamples = 13\nvalue = 15.246", fillcolor="#fae8db"] ;
54 -> 55 ;
56 [label="mse = 6.56\nsamples = 11\nvalue = 12.618", fillcolor="#fcf1e8"] ;
54 -> 56 ;
57 [label="magnesium <= 0.606\nmse = 14.674\nsamples = 74\nvalue = 11.978", fillcolor="#fcf3ec"] ;
41 -> 57 ;
58 [label="mse = 18.606\nsamples = 12\nvalue = 16.633", fillcolor="#f9e4d4"] ;
57 -> 58 ;
59 [label="proline <= 19.645\nmse = 8.908\nsamples = 62\nvalue = 11.077", fillcolor="#fdf5f0"] ;
57 -> 59 ;
60 [label="mse = 4.18\nsamples = 18\nvalue = 13.922", fillcolor="#fbece2"] ;
59 -> 60 ;
61 [label="magnesium <= 0.675\nmse = 6.177\nsamples = 44\nvalue = 9.914", fillcolor="#fef9f6"] ;
59 -> 61 ;
62 [label="mse = 1.544\nsamples = 10\nvalue = 12.63", fillcolor="#fcf1e8"] ;
61 -> 62 ;
63 [label="alcohol <= 13.24\nmse = 4.731\nsamples = 34\nvalue = 9.115", fillcolor="#fefcfa"] ;
61 -> 63 ;
64 [label="mse = 3.989\nsamples = 15\nvalue = 10.46", fillcolor="#fdf7f3"] ;
63 -> 64 ;
65 [label="mse = 2.76\nsamples = 19\nvalue = 8.053", fillcolor="#ffffff"] ;
63 -> 65 ;
66 [label="total_phenols <= 7.437\nmse = 79.729\nsamples = 76\nvalue = 37.238", fillcolor="#eca36e"] ;
0 -> 66 [labeldistance=2.5, labelangle=-45, headlabel="False"] ;
67 [label="proline <= 5.495\nmse = 41.296\nsamples = 46\nvalue = 32.113", fillcolor="#efb388"] ;
66 -> 67 ;
68 [label="nonflavanoid_phenols <= 5.323\nmse = 17.249\nsamples = 23\nvalue = 35.248", fillcolor="#eda978"] ;
67 -> 68 ;
69 [label="mse = 25.867\nsamples = 10\nvalue = 37.19", fillcolor="#eca36e"] ;
68 -> 69 ;
70 [label="mse = 5.486\nsamples = 13\nvalue = 33.754", fillcolor="#eeae80"] ;
68 -> 70 ;
71 [label="malic_acid <= 8.75\nmse = 45.69\nsamples = 23\nvalue = 28.978", fillcolor="#f1bd97"] ;
67 -> 71 ;
72 [label="mse = 46.43\nsamples = 11\nvalue = 24.155", fillcolor="#f5ccaf"] ;
71 -> 72 ;
73 [label="mse = 4.13\nsamples = 12\nvalue = 33.4", fillcolor="#eeaf81"] ;
71 -> 73 ;
74 [label="hue <= 15.4\nmse = 36.628\nsamples = 30\nvalue = 45.097", fillcolor="#e78a47"] ;
66 -> 74 ;
75 [label="mse = 7.774\nsamples = 16\nvalue = 47.975", fillcolor="#e58139"] ;
74 -> 75 ;
76 [label="mse = 49.315\nsamples = 14\nvalue = 41.807", fillcolor="#e99458"] ;
74 -> 76 ;
}